<?xml version="1.0"?>
<opencv_storage>
<opencv_ml_svm>
  <format>3</format>
  <svmType>C_SVC</svmType>
  <kernel>
    <type>RBF</type>
    <gamma>1.</gamma></kernel>
  <C>50.</C>
  <term_criteria><epsilon>1.1920928955078125e-07</epsilon>
    <iterations>1000</iterations></term_criteria>
  <var_count>12</var_count>
  <class_count>2</class_count>
  <class_labels type_id="opencv-matrix">
    <rows>2</rows>
    <cols>1</cols>
    <dt>i</dt>
    <data>
      -1 1</data></class_labels>
  <sv_total>128</sv_total>
  <support_vectors>
    <_>
      1.08695656e-01 4.34782617e-02 6.52173907e-02 8.69565234e-02
      4.34782617e-02 8.69565234e-02 1.30434781e-01 2.17391308e-02
      2.17391308e-02 1.30434781e-01 1.95652172e-01 6.52173907e-02</_>
    <_>
      6.66666701e-02 6.66666701e-02 4.44444455e-02 1.33333340e-01
      4.44444455e-02 0. 1.55555561e-01 4.44444455e-02 8.88888910e-02
      8.88888910e-02 2.00000003e-01 6.66666701e-02</_>
    <_>
      5.71428575e-02 5.71428575e-02 1.42857149e-01 2.85714287e-02
      8.57142881e-02 1.42857149e-01 8.57142881e-02 5.71428575e-02
      2.85714287e-02 1.14285715e-01 1.71428576e-01 2.85714287e-02</_>
    <_>
      4.25531901e-02 1.70212761e-01 4.25531901e-02 1.48936167e-01
      2.12765951e-02 2.12765951e-02 1.48936167e-01 6.38297871e-02
      8.51063803e-02 8.51063803e-02 8.51063803e-02 8.51063803e-02</_>
    <_>
      0. 2.55813956e-01 4.65116277e-02 1.86046511e-01 2.32558139e-02
      1.86046511e-01 1.39534891e-01 9.30232555e-02 4.65116277e-02 0.
      2.32558139e-02 0.</_>
    <_>
      2.27272734e-02 1.13636367e-01 6.81818202e-02 1.81818187e-01
      4.54545468e-02 1.13636367e-01 2.27272734e-02 1.36363640e-01
      6.81818202e-02 9.09090936e-02 6.81818202e-02 6.81818202e-02</_>
    <_>
      4.76190485e-02 1.19047619e-01 9.52380970e-02 9.52380970e-02
      4.76190485e-02 9.52380970e-02 1.19047619e-01 7.14285746e-02
      4.76190485e-02 9.52380970e-02 7.14285746e-02 9.52380970e-02</_>
    <_>
      1.45833343e-01 4.16666679e-02 4.16666679e-02 4.16666679e-02
      2.08333340e-02 1.04166672e-01 4.16666679e-02 1.45833343e-01
      6.25000000e-02 1.04166672e-01 1.04166672e-01 1.45833343e-01</_>
    <_>
      2.38095243e-02 1.19047619e-01 9.52380970e-02 7.14285746e-02 0.
      9.52380970e-02 1.19047619e-01 4.76190485e-02 1.66666672e-01
      7.14285746e-02 4.76190485e-02 1.42857149e-01</_>
    <_>
      4.22535203e-02 1.26760557e-01 9.85915512e-02 8.45070407e-02
      4.22535203e-02 5.63380271e-02 7.04225302e-02 5.63380271e-02
      1.12676054e-01 5.63380271e-02 1.54929578e-01 9.85915512e-02</_>
    <_>
      4.54545468e-02 1.81818187e-01 4.54545468e-02 0. 0. 9.09090936e-02
      6.81818202e-02 3.18181813e-01 1.36363640e-01 4.54545468e-02
      4.54545468e-02 2.27272734e-02</_>
    <_>
      4.81927693e-02 1.32530123e-01 6.02409616e-02 1.08433731e-01
      4.81927693e-02 8.43373463e-02 7.22891539e-02 7.22891539e-02
      6.02409616e-02 1.08433731e-01 9.63855386e-02 1.08433731e-01</_>
    <_>
      9.75609720e-02 3.65853645e-02 4.87804860e-02 2.43902430e-02
      1.46341458e-01 1.21951215e-01 4.87804860e-02 6.09756075e-02
      9.75609720e-02 1.46341458e-01 8.53658468e-02 8.53658468e-02</_>
    <_>
      1.04166672e-01 1.45833343e-01 6.25000000e-02 1.45833343e-01
      6.25000000e-02 8.33333358e-02 1.25000000e-01 6.25000000e-02
      4.16666679e-02 6.25000000e-02 2.08333340e-02 8.33333358e-02</_>
    <_>
      8.62068981e-02 8.62068981e-02 6.89655170e-02 1.37931034e-01
      1.72413792e-02 8.62068981e-02 1.72413792e-02 8.62068981e-02
      2.75862068e-01 8.62068981e-02 3.44827585e-02 1.72413792e-02</_>
    <_>
      2.50000004e-02 7.50000030e-02 1.00000001e-01 1.74999997e-01 0.
      1.00000001e-01 7.50000030e-02 5.00000007e-02 5.00000007e-02
      1.74999997e-01 1.00000001e-01 7.50000030e-02</_>
    <_>
      2.85714287e-02 2.28571430e-01 2.85714287e-02 1.42857149e-01
      5.71428575e-02 1.14285715e-01 2.85714287e-02 5.71428575e-02
      2.00000003e-01 2.85714287e-02 0. 8.57142881e-02</_>
    <_>
      4.25531901e-02 1.91489354e-01 4.25531901e-02 2.12765947e-01
      2.12765951e-02 8.51063803e-02 6.38297871e-02 1.27659574e-01
      6.38297871e-02 4.25531901e-02 6.38297871e-02 4.25531901e-02</_>
    <_>
      9.75609720e-02 7.31707290e-02 9.75609720e-02 4.87804860e-02
      7.31707290e-02 0. 2.43902430e-02 4.87804860e-02 1.95121944e-01
      1.46341458e-01 9.75609720e-02 9.75609720e-02</_>
    <_>
      4.34782617e-02 8.69565234e-02 8.69565234e-02 1.52173921e-01
      6.52173907e-02 6.52173907e-02 4.34782617e-02 1.08695656e-01
      1.73913047e-01 2.17391308e-02 6.52173907e-02 8.69565234e-02</_>
    <_>
      7.14285746e-02 2.14285731e-01 1.07142866e-01 0. 3.57142873e-02
      7.14285746e-02 0. 1.78571433e-01 1.78571433e-01 3.57142873e-02
      1.07142866e-01 0.</_>
    <_>
      3.44827585e-02 5.17241359e-02 6.89655170e-02 1.72413796e-01
      5.17241359e-02 5.17241359e-02 1.03448272e-01 6.89655170e-02
      1.03448272e-01 1.37931034e-01 5.17241359e-02 1.03448272e-01</_>
    <_>
      3.22580636e-02 1.12903222e-01 8.06451589e-02 1.29032254e-01
      1.61290318e-02 8.06451589e-02 8.06451589e-02 6.45161271e-02
      1.29032254e-01 4.83870953e-02 9.67741907e-02 1.29032254e-01</_>
    <_>
      1.07142866e-01 1.42857149e-01 7.14285746e-02 2.14285731e-01
      1.42857149e-01 0. 1.07142866e-01 7.14285746e-02 1.07142866e-01 0.
      0. 3.57142873e-02</_>
    <_>
      4.54545468e-02 1.81818187e-01 4.54545468e-02 1.13636367e-01
      2.27272734e-02 0. 1.36363640e-01 4.54545468e-02 1.81818187e-01
      1.13636367e-01 4.54545468e-02 6.81818202e-02</_>
    <_>
      1.13207549e-01 1.13207549e-01 1.13207549e-01 7.54716992e-02
      1.88679248e-02 3.77358496e-02 7.54716992e-02 1.13207549e-01
      1.32075474e-01 7.54716992e-02 5.66037744e-02 7.54716992e-02</_>
    <_>
      5.26315793e-02 2.10526317e-01 1.75438598e-02 1.75438598e-02
      3.50877196e-02 1.22807018e-01 1.75438598e-01 7.01754391e-02
      1.40350878e-01 3.50877196e-02 7.01754391e-02 5.26315793e-02</_>
    <_>
      4.16666679e-02 1.45833343e-01 6.25000000e-02 2.08333340e-02
      8.33333358e-02 6.25000000e-02 4.16666679e-02 2.29166672e-01
      1.04166672e-01 6.25000000e-02 6.25000000e-02 8.33333358e-02</_>
    <_>
      6.97674453e-02 6.97674453e-02 1.62790701e-01 5.81395328e-02
      2.32558139e-02 4.65116277e-02 8.13953504e-02 9.30232555e-02
      1.27906978e-01 9.30232555e-02 9.30232555e-02 8.13953504e-02</_>
    <_>
      3.50877196e-02 1.75438598e-01 5.26315793e-02 7.01754391e-02
      3.50877196e-02 5.26315793e-02 5.26315793e-02 1.05263159e-01
      1.40350878e-01 8.77192989e-02 8.77192989e-02 1.05263159e-01</_>
    <_>
      4.47761193e-02 7.46268630e-02 7.46268630e-02 7.46268630e-02
      1.04477607e-01 1.19402982e-01 1.64179102e-01 1.04477607e-01
      2.98507456e-02 5.97014911e-02 7.46268630e-02 7.46268630e-02</_>
    <_>
      1.26582282e-02 1.77215189e-01 2.53164563e-02 6.32911399e-02
      5.06329127e-02 1.26582280e-01 1.26582280e-01 1.51898742e-01
      1.89873427e-01 5.06329127e-02 0. 2.53164563e-02</_>
    <_>
      8.62068981e-02 1.72413796e-01 6.89655170e-02 1.37931034e-01
      1.72413792e-02 8.62068981e-02 1.03448272e-01 6.89655170e-02
      6.89655170e-02 1.03448272e-01 3.44827585e-02 5.17241359e-02</_>
    <_>
      1.59999996e-01 2.66666673e-02 7.99999982e-02 2.66666673e-02
      5.33333346e-02 5.33333346e-02 5.33333346e-02 2.66666673e-02
      1.33333340e-01 2.26666674e-01 9.33333337e-02 6.66666701e-02</_>
    <_>
      1.69491526e-02 1.01694912e-01 8.47457647e-02 6.77966103e-02
      8.47457647e-02 1.01694912e-01 5.08474559e-02 8.47457647e-02
      1.35593221e-01 1.01694912e-01 1.01694912e-01 6.77966103e-02</_>
    <_>
      1.04166672e-01 8.33333358e-02 1.04166672e-01 8.33333358e-02
      8.33333358e-02 8.33333358e-02 1.04166672e-01 4.16666679e-02
      1.04166672e-01 8.33333358e-02 8.33333358e-02 4.16666679e-02</_>
    <_>
      7.84313753e-02 1.17647067e-01 3.92156877e-02 1.17647067e-01
      1.96078438e-02 5.88235334e-02 0. 1.17647067e-01 1.37254909e-01
      1.56862751e-01 9.80392173e-02 5.88235334e-02</_>
    <_>
      9.45945978e-02 1.75675675e-01 1.35135138e-02 1.62162170e-01
      2.70270277e-02 9.45945978e-02 9.45945978e-02 6.75675720e-02
      9.45945978e-02 6.75675720e-02 1.35135138e-02 9.45945978e-02</_>
    <_>
      4.08163257e-02 1.83673471e-01 2.04081628e-02 1.83673471e-01
      2.04081628e-02 1.42857134e-01 8.16326514e-02 1.02040812e-01
      1.22448981e-01 8.16326514e-02 2.04081628e-02 0.</_>
    <_>
      5.55555560e-02 1.66666672e-01 1.11111112e-01 3.70370373e-02
      3.70370373e-02 3.70370373e-02 1.85185194e-01 1.11111112e-01
      1.29629627e-01 1.85185187e-02 1.85185187e-02 9.25925970e-02</_>
    <_>
      8.06451589e-02 4.83870953e-02 1.12903222e-01 6.45161271e-02
      4.83870953e-02 6.45161271e-02 1.61290318e-02 6.45161271e-02
      1.29032254e-01 1.29032254e-01 1.45161286e-01 9.67741907e-02</_>
    <_>
      7.31707290e-02 4.87804860e-02 4.87804860e-02 1.95121944e-01
      4.87804860e-02 9.75609720e-02 1.46341458e-01 9.75609720e-02
      7.31707290e-02 4.87804860e-02 7.31707290e-02 4.87804860e-02</_>
    <_>
      1.16279066e-01 9.30232555e-02 4.65116277e-02 9.30232555e-02
      6.97674453e-02 0. 4.65116277e-02 9.30232555e-02 1.39534891e-01
      1.39534891e-01 6.97674453e-02 9.30232555e-02</_>
    <_>
      5.76923117e-02 7.69230798e-02 3.84615399e-02 1.15384623e-01
      3.84615399e-02 9.61538479e-02 1.34615391e-01 5.76923117e-02
      3.84615399e-02 1.34615391e-01 1.73076928e-01 3.84615399e-02</_>
    <_>
      7.89473653e-02 1.57894731e-01 5.26315793e-02 1.84210524e-01
      5.26315793e-02 5.26315793e-02 2.63157897e-02 1.31578952e-01
      1.31578952e-01 5.26315793e-02 5.26315793e-02 2.63157897e-02</_>
    <_>
      2.22222228e-02 1.33333340e-01 8.88888910e-02 2.22222228e-02
      4.44444455e-02 1.11111112e-01 1.11111112e-01 8.88888910e-02
      2.00000003e-01 6.66666701e-02 6.66666701e-02 4.44444455e-02</_>
    <_>
      7.14285746e-02 1.60714298e-01 1.42857149e-01 1.78571437e-02 0.
      1.78571437e-02 1.07142866e-01 1.25000000e-01 1.25000000e-01
      8.92857164e-02 7.14285746e-02 7.14285746e-02</_>
    <_>
      4.87804860e-02 2.19512194e-01 4.87804860e-02 1.21951215e-01 0.
      2.19512194e-01 9.75609720e-02 4.87804860e-02 1.46341458e-01 0. 0.
      4.87804860e-02</_>
    <_>
      1.02941178e-01 1.47058824e-02 4.41176482e-02 8.82352963e-02
      7.35294148e-02 1.02941178e-01 7.35294148e-02 1.32352948e-01
      1.32352948e-01 5.88235296e-02 5.88235296e-02 1.17647059e-01</_>
    <_>
      1.32352948e-01 1.02941178e-01 1.02941178e-01 5.88235296e-02
      7.35294148e-02 2.94117648e-02 4.41176482e-02 2.94117648e-02
      1.17647059e-01 1.17647059e-01 5.88235296e-02 1.32352948e-01</_>
    <_>
      7.69230798e-02 2.56410271e-01 2.56410260e-02 1.79487184e-01
      2.56410260e-02 0. 0. 0. 0. 1.79487184e-01 1.79487184e-01
      7.69230798e-02</_>
    <_>
      0. 4.13793087e-01 0. 1.37931034e-01 0. 0. 3.44827585e-02
      3.44827585e-02 1.72413796e-01 6.89655170e-02 1.03448272e-01
      3.44827585e-02</_>
    <_>
      3.44827585e-02 2.41379306e-01 1.37931034e-01 1.03448272e-01
      3.44827585e-02 3.44827585e-02 6.89655170e-02 3.44827585e-02
      6.89655170e-02 1.37931034e-01 6.89655170e-02 3.44827585e-02</_>
    <_>
      1.42857149e-01 1.11111119e-01 3.17460336e-02 6.34920672e-02
      7.93650821e-02 7.93650821e-02 1.11111119e-01 6.34920672e-02
      1.58730164e-01 1.58730168e-02 9.52381045e-02 4.76190522e-02</_>
    <_>
      3.38983051e-02 1.52542368e-01 5.08474559e-02 1.01694912e-01 0.
      5.08474559e-02 1.35593221e-01 6.77966103e-02 1.18644066e-01
      1.01694912e-01 1.35593221e-01 5.08474559e-02</_>
    <_>
      2.56410260e-02 2.56410260e-02 2.56410260e-02 2.56410260e-02
      1.28205130e-02 1.79487184e-01 1.92307696e-01 2.56410271e-01
      1.79487184e-01 2.56410260e-02 1.28205130e-02 3.84615399e-02</_>
    <_>
      7.01754391e-02 7.01754391e-02 7.01754391e-02 7.01754391e-02 0.
      2.10526317e-01 7.01754391e-02 1.92982465e-01 5.26315793e-02
      3.50877196e-02 7.01754391e-02 8.77192989e-02</_>
    <_>
      1.11111112e-01 8.33333358e-02 9.72222239e-02 2.77777780e-02
      9.72222239e-02 1.38888890e-02 5.55555560e-02 8.33333358e-02
      1.80555552e-01 1.11111112e-01 9.72222239e-02 4.16666679e-02</_>
    <_>
      1.22448981e-01 2.04081625e-01 6.12244904e-02 1.02040812e-01
      4.08163257e-02 8.16326514e-02 1.22448981e-01 2.04081628e-02
      6.12244904e-02 6.12244904e-02 6.12244904e-02 6.12244904e-02</_>
    <_>
      3.57142873e-02 7.14285746e-02 8.92857164e-02 5.35714328e-02
      3.57142873e-02 8.92857164e-02 5.35714328e-02 1.42857149e-01
      1.96428582e-01 7.14285746e-02 8.92857164e-02 7.14285746e-02</_>
    <_>
      1.85185194e-01 2.77777780e-02 1.20370373e-01 0. 8.33333358e-02
      3.70370373e-02 9.25925970e-02 7.40740746e-02 1.01851851e-01
      1.11111112e-01 4.62962985e-02 1.20370373e-01</_>
    <_>
      6.38297871e-02 4.25531901e-02 6.38297871e-02 8.51063803e-02
      2.12765951e-02 4.25531901e-02 4.25531901e-02 4.25531901e-02
      1.70212761e-01 1.48936167e-01 1.48936167e-01 1.27659574e-01</_>
    <_>
      1.15942031e-01 5.79710156e-02 1.01449281e-01 0. 2.89855078e-02
      1.44927539e-02 0. 1.59420297e-01 1.59420297e-01 1.44927531e-01
      1.44927531e-01 7.24637657e-02</_>
    <_>
      1.17647059e-01 0. 8.82352963e-02 5.88235296e-02 2.94117648e-02
      2.94117648e-02 4.41176482e-02 8.82352963e-02 1.47058830e-01
      1.02941178e-01 8.82352963e-02 2.05882356e-01</_>
    <_>
      1.63265303e-01 6.12244904e-02 1.02040812e-01 1.42857134e-01
      2.04081628e-02 2.04081628e-02 6.12244904e-02 1.22448981e-01
      1.22448981e-01 2.04081628e-02 6.12244904e-02 1.02040812e-01</_>
    <_>
      6.25000000e-02 3.12500000e-02 1.09375000e-01 7.81250000e-02
      9.37500000e-02 6.25000000e-02 6.25000000e-02 1.56250000e-01
      1.56250000e-01 1.56250000e-02 3.12500000e-02 1.40625000e-01</_>
    <_>
      1.99999996e-02 5.99999987e-02 1.99999988e-01 5.99999987e-02
      7.99999982e-02 1.19999997e-01 7.99999982e-02 7.99999982e-02
      7.99999982e-02 7.99999982e-02 7.99999982e-02 5.99999987e-02</_>
    <_>
      8.33333358e-02 1.25000000e-01 1.25000000e-01 8.33333358e-02 0.
      6.25000000e-02 8.33333358e-02 8.33333358e-02 2.08333343e-01
      2.08333340e-02 4.16666679e-02 8.33333358e-02</_>
    <_>
      1.07142866e-01 1.07142866e-01 8.92857164e-02 8.92857164e-02
      7.14285746e-02 5.35714328e-02 1.07142866e-01 1.78571437e-02
      1.42857149e-01 8.92857164e-02 8.92857164e-02 3.57142873e-02</_>
    <_>
      1.11111112e-01 2.22222228e-02 1.11111112e-01 8.88888910e-02
      1.33333340e-01 0. 2.22222228e-02 8.88888910e-02 8.88888910e-02
      1.33333340e-01 8.88888910e-02 1.11111112e-01</_>
    <_>
      1.07142866e-01 7.14285746e-02 7.14285746e-02 3.57142873e-02
      1.07142866e-01 0. 7.14285746e-02 3.57142873e-02 3.57142873e-02
      1.42857149e-01 2.14285731e-01 1.07142866e-01</_>
    <_>
      1.84615389e-01 4.61538471e-02 2.00000003e-01 3.07692308e-02
      6.15384616e-02 4.61538471e-02 9.23076943e-02 4.61538471e-02
      3.07692308e-02 1.69230774e-01 4.61538471e-02 4.61538471e-02</_>
    <_>
      5.08474559e-02 1.52542368e-01 1.01694912e-01 1.69491526e-02
      5.08474559e-02 1.18644066e-01 1.18644066e-01 1.18644066e-01
      5.08474559e-02 6.77966103e-02 1.01694912e-01 5.08474559e-02</_>
    <_>
      6.55737668e-02 1.96721300e-01 8.19672048e-02 1.63934417e-02
      1.63934417e-02 1.14754096e-01 1.14754096e-01 8.19672048e-02
      8.19672048e-02 9.83606502e-02 8.19672048e-02 4.91803251e-02</_>
    <_>
      9.52380970e-02 1.42857149e-01 1.19047619e-01 9.52380970e-02
      4.76190485e-02 4.76190485e-02 1.19047619e-01 7.14285746e-02
      7.14285746e-02 7.14285746e-02 0. 1.19047619e-01</_>
    <_>
      7.69230798e-02 3.84615399e-02 9.61538479e-02 3.84615399e-02
      5.76923117e-02 1.15384623e-01 7.69230798e-02 7.69230798e-02
      1.15384623e-01 1.15384623e-01 7.69230798e-02 1.15384623e-01</_>
    <_>
      2.17391308e-02 1.52173921e-01 8.69565234e-02 2.17391308e-02
      2.17391308e-02 4.34782617e-02 4.34782617e-02 6.52173907e-02
      1.08695656e-01 1.08695656e-01 1.73913047e-01 1.52173921e-01</_>
    <_>
      6.66666701e-02 2.00000003e-01 4.44444455e-02 1.11111112e-01
      4.44444455e-02 6.66666701e-02 4.44444455e-02 1.77777782e-01
      1.55555561e-01 4.44444455e-02 0. 4.44444455e-02</_>
    <_>
      6.52173907e-02 1.73913047e-01 0. 4.34782617e-02 6.52173907e-02
      1.08695656e-01 1.52173921e-01 6.52173907e-02 1.08695656e-01
      4.34782617e-02 4.34782617e-02 1.30434781e-01</_>
    <_>
      1.32075474e-01 3.77358496e-02 7.54716992e-02 5.66037744e-02
      1.32075474e-01 0. 7.54716992e-02 1.13207549e-01 1.13207549e-01
      1.13207549e-01 7.54716992e-02 7.54716992e-02</_>
    <_>
      1.00000001e-01 1.25000000e-01 1.50000006e-01 2.50000004e-02 0.
      1.00000001e-01 1.50000006e-01 5.00000007e-02 1.25000000e-01
      1.00000001e-01 0. 7.50000030e-02</_>
    <_>
      7.27272704e-02 7.27272704e-02 5.45454547e-02 1.81818176e-02
      3.63636352e-02 2.18181819e-01 2.36363634e-01 1.09090909e-01
      1.09090909e-01 3.63636352e-02 3.63636352e-02 0.</_>
    <_>
      1.96078435e-01 1.96078438e-02 9.80392173e-02 7.84313753e-02
      1.96078438e-02 1.96078438e-02 1.17647067e-01 7.84313753e-02
      7.84313753e-02 1.17647067e-01 5.88235334e-02 1.17647067e-01</_>
    <_>
      0. 2.54545450e-01 1.81818176e-02 1.09090909e-01 1.81818176e-02
      7.27272704e-02 1.09090909e-01 2.36363634e-01 3.63636352e-02
      3.63636352e-02 9.09090862e-02 1.81818176e-02</_>
    <_>
      1.00000009e-01 5.00000045e-02 6.66666701e-02 1.66666675e-02
      5.00000045e-02 8.33333358e-02 6.66666701e-02 1.83333337e-01
      1.33333340e-01 1.33333340e-01 5.00000045e-02 6.66666701e-02</_>
    <_>
      6.52173907e-02 2.17391312e-01 6.52173907e-02 1.08695656e-01
      2.17391308e-02 1.08695656e-01 1.30434781e-01 2.17391308e-02
      6.52173907e-02 6.52173907e-02 4.34782617e-02 8.69565234e-02</_>
    <_>
      4.54545468e-02 1.36363640e-01 4.54545468e-02 2.27272734e-01 0. 0.
      1.36363640e-01 1.36363640e-01 4.54545468e-02 4.54545468e-02
      1.36363640e-01 4.54545468e-02</_>
    <_>
      7.93650821e-02 6.34920672e-02 9.52381045e-02 6.34920672e-02
      6.34920672e-02 3.17460336e-02 1.11111119e-01 9.52381045e-02
      2.06349224e-01 1.58730168e-02 6.34920672e-02 1.11111119e-01</_>
    <_>
      1.60714298e-01 1.78571433e-01 1.25000000e-01 8.92857164e-02
      7.14285746e-02 5.35714328e-02 1.07142866e-01 5.35714328e-02
      8.92857164e-02 0. 3.57142873e-02 3.57142873e-02</_>
    <_>
      7.40740746e-02 1.48148149e-01 3.70370373e-02 9.25925970e-02
      5.55555560e-02 1.11111112e-01 1.85185194e-01 5.55555560e-02
      5.55555560e-02 7.40740746e-02 7.40740746e-02 3.70370373e-02</_>
    <_>
      8.57142881e-02 1.14285715e-01 5.71428575e-02 8.57142881e-02
      5.71428575e-02 2.00000003e-01 1.42857149e-01 0. 5.71428575e-02
      2.85714287e-02 5.71428575e-02 1.14285715e-01</_>
    <_>
      8.57142881e-02 5.71428575e-02 1.42857149e-01 1.00000001e-01
      4.28571440e-02 1.42857144e-02 5.71428575e-02 1.42857149e-01
      1.00000001e-01 1.14285715e-01 1.00000001e-01 4.28571440e-02</_>
    <_>
      0. 8.33333358e-02 5.55555560e-02 2.77777780e-02 0. 1.38888896e-01
      1.66666672e-01 1.94444448e-01 1.38888896e-01 8.33333358e-02
      5.55555560e-02 5.55555560e-02</_>
    <_>
      1.32075474e-01 3.77358496e-02 9.43396240e-02 5.66037744e-02
      5.66037744e-02 3.77358496e-02 3.77358496e-02 1.50943398e-01
      9.43396240e-02 1.32075474e-01 3.77358496e-02 1.32075474e-01</_>
    <_>
      1.37254909e-01 9.80392173e-02 9.80392173e-02 1.96078438e-02
      3.92156877e-02 1.96078438e-02 1.37254909e-01 5.88235334e-02 0.
      1.76470593e-01 7.84313753e-02 1.37254909e-01</_>
    <_>
      8.82352963e-02 5.88235296e-02 1.32352948e-01 1.47058824e-02
      4.41176482e-02 2.94117648e-02 1.76470593e-01 4.41176482e-02
      8.82352963e-02 1.47058830e-01 8.82352963e-02 8.82352963e-02</_>
    <_>
      1.14754096e-01 6.55737668e-02 9.83606502e-02 6.55737668e-02
      6.55737668e-02 1.14754096e-01 1.14754096e-01 8.19672048e-02
      8.19672048e-02 4.91803251e-02 4.91803251e-02 9.83606502e-02</_>
    <_>
      9.09090936e-02 2.27272734e-01 4.54545468e-02 1.51515156e-01
      7.57575780e-02 4.54545468e-02 9.09090936e-02 4.54545468e-02
      3.03030312e-02 7.57575780e-02 7.57575780e-02 4.54545468e-02</_>
    <_>
      1.09589040e-01 2.73972601e-02 1.23287670e-01 0. 5.47945201e-02
      8.21917802e-02 1.36986300e-01 1.64383560e-01 8.21917802e-02
      1.09589040e-01 2.73972601e-02 8.21917802e-02</_>
    <_>
      9.09090862e-02 7.27272704e-02 9.09090862e-02 9.09090862e-02
      5.45454547e-02 1.81818176e-02 9.09090862e-02 0. 9.09090862e-02
      7.27272704e-02 1.81818172e-01 1.45454541e-01</_>
    <_>
      1.08108111e-01 0. 2.70270277e-02 8.10810849e-02 0. 1.35135144e-01
      2.70270277e-02 3.24324340e-01 1.62162170e-01 5.40540554e-02
      2.70270277e-02 5.40540554e-02</_>
    <_>
      3.50877196e-02 1.40350878e-01 8.77192989e-02 1.57894731e-01
      1.75438598e-02 7.01754391e-02 5.26315793e-02 1.75438598e-02
      5.26315793e-02 1.40350878e-01 1.05263159e-01 1.22807018e-01</_>
    <_>
      1.99999996e-02 1.19999997e-01 9.99999940e-02 1.99999988e-01
      1.19999997e-01 1.99999996e-02 5.99999987e-02 7.99999982e-02
      1.99999996e-02 9.99999940e-02 9.99999940e-02 5.99999987e-02</_>
    <_>
      1.99999996e-02 7.99999982e-02 9.99999940e-02 1.99999996e-02
      3.99999991e-02 7.99999982e-02 7.99999982e-02 9.99999940e-02
      1.79999992e-01 5.99999987e-02 9.99999940e-02 1.40000001e-01</_>
    <_>
      1.44927531e-01 2.89855078e-02 7.24637657e-02 4.34782617e-02
      5.79710156e-02 5.79710156e-02 1.15942031e-01 1.15942031e-01
      2.02898562e-01 2.89855078e-02 2.89855078e-02 1.01449281e-01</_>
    <_>
      1.01694912e-01 5.08474559e-02 1.01694912e-01 8.47457647e-02
      5.08474559e-02 5.08474559e-02 1.69491526e-02 1.69491529e-01
      1.52542368e-01 1.01694912e-01 6.77966103e-02 5.08474559e-02</_>
    <_>
      1.01265825e-01 1.01265825e-01 1.39240503e-01 1.01265825e-01
      5.06329127e-02 7.59493709e-02 6.32911399e-02 0. 5.06329127e-02
      1.39240503e-01 7.59493709e-02 1.01265825e-01</_>
    <_>
      1.18181817e-01 9.09090880e-03 1.18181817e-01 0. 9.99999940e-02
      3.63636352e-02 9.99999940e-02 1.18181817e-01 1.45454541e-01
      8.18181783e-02 8.18181783e-02 9.09090862e-02</_>
    <_>
      9.09090936e-02 4.54545468e-02 6.06060624e-02 1.51515156e-02
      1.06060609e-01 1.81818187e-01 6.06060624e-02 1.21212125e-01
      4.54545468e-02 1.06060609e-01 7.57575780e-02 9.09090936e-02</_>
    <_>
      0. 4.65116277e-02 4.65116277e-02 1.16279066e-01 0. 1.39534891e-01
      1.39534891e-01 2.09302321e-01 2.09302321e-01 0. 6.97674453e-02
      2.32558139e-02</_>
    <_>
      7.84313753e-02 9.80392173e-02 7.84313753e-02 1.17647067e-01
      1.17647067e-01 0. 1.96078438e-02 7.84313753e-02 1.56862751e-01
      7.84313753e-02 9.80392173e-02 7.84313753e-02</_>
    <_>
      0. 1.39534891e-01 9.30232555e-02 1.39534891e-01 1.16279066e-01
      9.30232555e-02 4.65116277e-02 2.32558139e-02 6.97674453e-02
      1.16279066e-01 4.65116277e-02 1.16279066e-01</_>
    <_>
      4.65116277e-02 1.39534891e-01 9.30232555e-02 1.39534891e-01 0. 0.
      4.65116277e-02 0. 6.97674453e-02 1.62790701e-01 1.86046511e-01
      1.16279066e-01</_>
    <_>
      1.25000000e-01 8.33333358e-02 6.25000000e-02 8.33333358e-02
      1.04166672e-01 2.08333340e-02 6.25000000e-02 6.25000000e-02
      1.25000000e-01 1.04166672e-01 2.08333340e-02 1.45833343e-01</_>
    <_>
      0. 8.33333358e-02 8.33333358e-02 1.45833343e-01 4.16666679e-02
      1.45833343e-01 4.16666679e-02 1.45833343e-01 1.04166672e-01
      4.16666679e-02 2.08333340e-02 1.45833343e-01</_>
    <_>
      1.22807018e-01 1.40350878e-01 8.77192989e-02 3.50877196e-02
      1.05263159e-01 7.01754391e-02 1.22807018e-01 5.26315793e-02
      3.50877196e-02 1.05263159e-01 5.26315793e-02 7.01754391e-02</_>
    <_>
      1.38888896e-01 1.11111112e-01 2.77777780e-02 1.38888890e-02
      6.94444478e-02 5.55555560e-02 6.94444478e-02 1.11111112e-01
      1.25000000e-01 9.72222239e-02 6.94444478e-02 1.11111112e-01</_>
    <_>
      8.57142881e-02 4.28571440e-02 5.71428575e-02 2.85714287e-02
      1.00000001e-01 1.57142863e-01 1.00000001e-01 8.57142881e-02
      1.57142863e-01 7.14285746e-02 1.42857144e-02 1.00000001e-01</_>
    <_>
      1.72413792e-02 1.72413796e-01 5.17241359e-02 1.20689653e-01
      5.17241359e-02 8.62068981e-02 1.20689653e-01 5.17241359e-02
      1.03448272e-01 6.89655170e-02 6.89655170e-02 8.62068981e-02</_>
    <_>
      3.63636352e-02 5.45454547e-02 3.63636352e-02 3.63636352e-02
      1.09090909e-01 9.09090862e-02 3.63636352e-02 1.27272725e-01
      1.63636357e-01 7.27272704e-02 1.09090909e-01 1.27272725e-01</_>
    <_>
      8.62068981e-02 1.03448272e-01 1.03448272e-01 5.17241359e-02
      3.44827585e-02 8.62068981e-02 0. 8.62068981e-02 1.72413796e-01
      6.89655170e-02 6.89655170e-02 1.37931034e-01</_>
    <_>
      1.17647059e-01 1.17647059e-01 1.47058830e-01 5.88235296e-02 0.
      5.88235296e-02 8.82352963e-02 5.88235296e-02 2.05882356e-01
      4.41176482e-02 2.94117648e-02 7.35294148e-02</_>
    <_>
      4.34782617e-02 2.17391308e-02 6.52173907e-02 1.08695656e-01
      6.52173907e-02 1.52173921e-01 1.30434781e-01 1.95652172e-01
      4.34782617e-02 8.69565234e-02 2.17391308e-02 6.52173907e-02</_>
    <_>
      6.25000000e-02 4.16666679e-02 1.04166672e-01 8.33333358e-02
      4.16666679e-02 8.33333358e-02 6.25000000e-02 6.25000000e-02
      1.87500000e-01 1.04166672e-01 6.25000000e-02 1.04166672e-01</_>
    <_>
      6.66666701e-02 1.16666675e-01 1.66666672e-01 8.33333358e-02
      3.33333351e-02 1.00000009e-01 1.00000009e-01 3.33333351e-02
      6.66666701e-02 5.00000045e-02 1.00000009e-01 8.33333358e-02</_>
    <_>
      2.04081628e-02 1.42857134e-01 6.12244904e-02 1.02040812e-01
      2.04081628e-02 1.22448981e-01 2.04081625e-01 8.16326514e-02
      6.12244904e-02 6.12244904e-02 8.16326514e-02 4.08163257e-02</_>
    <_>
      1.85185194e-01 7.40740746e-02 7.40740746e-02 1.85185194e-01
      3.70370373e-02 3.70370373e-02 7.40740746e-02 0. 1.85185194e-01
      7.40740746e-02 3.70370373e-02 3.70370373e-02</_>
    <_>
      1.02040812e-01 1.63265303e-01 8.16326514e-02 4.08163257e-02
      2.04081628e-02 4.08163257e-02 0. 1.22448981e-01 1.42857134e-01
      6.12244904e-02 1.22448981e-01 1.02040812e-01</_></support_vectors>
  <decision_functions>
    <_>
      <sv_count>128</sv_count>
      <rho>-1.1535670928110822e+01</rho>
      <alpha>
        50. 50. 50. 9.3174259728765065e+00 50. 50. 50. 50. 50. 50. 50.
        50. 50. 50. 50. 50. 50. 50. 50. 7.2398025858852411e-01 50.
        1.0700987061286195e+01 50. 50. 50. 50. 1.8152916484720603e+01
        50. 50. 50. 50. 50. 50. 50. 50. 4.3464643687299166e+01 50. 50.
        50. 50. 50. 50. 50. 50. 50. 50. 50. 50. 50. 50. 50. 50. 50.
        3.8070245678500875e+01 50. 50. 50. 1.3485492548601204e+01
        1.8431054045704698e+01 50. 50. 50. 50. -1.6478643942042172e+01
        -50. -50. -50. -50. -2.1405229357571482e+01 -50. -50. -50. -50.
        -4.1629449461812740e+01 -50. -50. -3.6716984664007619e+01 -50.
        -50. -50. -50. -1.4725861231980819e+01 -3.8984462039576142e+00
        -50. -1.9076905215196753e+01 -50. -50. -50. -50. -50. -50. -50.
        -50. -50. -50. -50. -50. -50. -50. -3.8089192255854563e+01 -50.
        -50. -3.7274503988301866e+01 -50. -50. -50. -50. -50.
        -1.1686521445005033e+01 -50. -50. -50. -2.8806955469816792e+01
        -50. -50. -50. -50. -50. -50. -50. -50. -50.
        -1.3116439678889950e+01 -50. -50. -50. -1.9441612823140428e+01
        -50.</alpha>
      <index>
        127 2 58 60 4 62 5 64 7 67 8 69 70 11 12 13 74 15 76 80 20 82 22
        24 86 26 88 90 92 95 28 97 30 98 31 99 100 33 101 35 102 37 103
        105 39 107 40 108 109 44 111 46 113 47 116 119 49 121 51 52 123
        55 126 1 3 6 9 10 14 16 17 18 19 21 23 25 27 29 32 34 36 38 41
        42 43 45 48 50 53 54 56 91 57 93 94 68 96 75 63 77 78 59 79 104
        71 106 65 0 110 81 112 114 83 115 72 117 84 118 66 120 85 73 122
        87 61 124 89 125</index></_></decision_functions></opencv_ml_svm>
</opencv_storage>
